digraph Tree {
node [shape=box] ;
0 [label="adjustedtxvolumeusd <= -0.074\nmse = 11693562.856\nsamples = 1433\nvalue = 2467.689"] ;
1 [label="activeaddresses <= 0.435\nmse = 109418.672\nsamples = 990\nvalue = 533.575"] ;
0 -> 1 [labeldistance=2.5, labelangle=45, headlabel="True"] ;
2 [label="adjustedtxvolumeusd <= -0.548\nmse = 29724.918\nsamples = 838\nvalue = 445.622"] ;
1 -> 2 ;
3 [label="txcount <= -1.23\nmse = 18453.356\nsamples = 435\nvalue = 359.72"] ;
2 -> 3 ;
4 [label="adjustedtxvolumeusd <= -0.571\nmse = 8906.417\nsamples = 152\nvalue = 514.828"] ;
3 -> 4 ;
5 [label="mse = 6946.647\nsamples = 77\nvalue = 468.703"] ;
4 -> 5 ;
6 [label="mse = 6491.555\nsamples = 75\nvalue = 562.184"] ;
4 -> 6 ;
7 [label="activeaddresses <= -1.033\nmse = 3718.716\nsamples = 283\nvalue = 276.411"] ;
3 -> 7 ;
8 [label="mse = 5760.396\nsamples = 72\nvalue = 334.029"] ;
7 -> 8 ;
9 [label="mse = 1502.663\nsamples = 211\nvalue = 256.75"] ;
7 -> 9 ;
10 [label="txcount <= -1.282\nmse = 25329.025\nsamples = 403\nvalue = 538.344"] ;
2 -> 10 ;
11 [label="mse = 15069.254\nsamples = 74\nvalue = 712.775"] ;
10 -> 11 ;
12 [label="activeaddresses <= -0.145\nmse = 19253.853\nsamples = 329\nvalue = 499.111"] ;
10 -> 12 ;
13 [label="mse = 12052.185\nsamples = 103\nvalue = 398.061"] ;
12 -> 13 ;
14 [label="mse = 15761.404\nsamples = 226\nvalue = 545.164"] ;
12 -> 14 ;
15 [label="adjustedtxvolumeusd <= -0.348\nmse = 271008.891\nsamples = 152\nvalue = 1018.472"] ;
1 -> 15 ;
16 [label="mse = 29513.615\nsamples = 73\nvalue = 808.711"] ;
15 -> 16 ;
17 [label="mse = 415934.84\nsamples = 79\nvalue = 1212.302"] ;
15 -> 17 ;
18 [label="adjustedtxvolumeusd <= 1.579\nmse = 10539410.32\nsamples = 443\nvalue = 6789.977"] ;
0 -> 18 [labeldistance=2.5, labelangle=-45, headlabel="False"] ;
19 [label="txcount <= 0.425\nmse = 5344380.76\nsamples = 365\nvalue = 5842.346"] ;
18 -> 19 ;
20 [label="adjustedtxvolumeusd <= 0.64\nmse = 3837789.371\nsamples = 160\nvalue = 7208.392"] ;
19 -> 20 ;
21 [label="mse = 2716472.255\nsamples = 81\nvalue = 6242.809"] ;
20 -> 21 ;
22 [label="mse = 3051382.005\nsamples = 79\nvalue = 8198.421"] ;
20 -> 22 ;
23 [label="adjustedtxvolumeusd <= 0.449\nmse = 3927056.426\nsamples = 205\nvalue = 4776.163"] ;
19 -> 23 ;
24 [label="mse = 3548985.57\nsamples = 72\nvalue = 3655.307"] ;
23 -> 24 ;
25 [label="mse = 3083431.901\nsamples = 133\nvalue = 5382.943"] ;
23 -> 25 ;
26 [label="mse = 10983153.128\nsamples = 78\nvalue = 11224.403"] ;
18 -> 26 ;
}